digraph Tree {
node [shape=box] ;
0 [label="Income <= 113.5\ngini = 0.174\nsamples = 5000\nvalue = [4520, 480]"] ;
1 [label="CCAvg <= 2.95\ngini = 0.041\nsamples = 4021\nvalue = [3937, 84]"] ;
0 -> 1 [labeldistance=2.5, labelangle=45, headlabel="True"] ;
2 [label="Income <= 106.5\ngini = 0.007\nsamples = 3723\nvalue = [3710, 13]"] ;
1 -> 2 ;
3 [label="gini = 0.0\nsamples = 3629\nvalue = [3629, 0]"] ;
2 -> 3 ;
4 [label="Family <= 3.5\ngini = 0.238\nsamples = 94\nvalue = [81, 13]"] ;
2 -> 4 ;
5 [label="Education <= 1.5\ngini = 0.157\nsamples = 70\nvalue = [64, 6]"] ;
4 -> 5 ;
6 [label="gini = 0.0\nsamples = 41\nvalue = [41, 0]"] ;
5 -> 6 ;
7 [label="ZIP Code <= 90998.5\ngini = 0.328\nsamples = 29\nvalue = [23, 6]"] ;
5 -> 7 ;
8 [label="Family <= 2.5\ngini = 0.444\nsamples = 3\nvalue = [1, 2]"] ;
7 -> 8 ;
9 [label="gini = 0.0\nsamples = 2\nvalue = [0, 2]"] ;
8 -> 9 ;
10 [label="gini = 0.0\nsamples = 1\nvalue = [1, 0]"] ;
8 -> 10 ;
11 [label="ID <= 306.5\ngini = 0.26\nsamples = 26\nvalue = [22, 4]"] ;
7 -> 11 ;
12 [label="gini = 0.0\nsamples = 1\nvalue = [0, 1]"] ;
11 -> 12 ;
13 [label="CCAvg <= 1.15\ngini = 0.211\nsamples = 25\nvalue = [22, 3]"] ;
11 -> 13 ;
14 [label="Experience <= 12.5\ngini = 0.42\nsamples = 10\nvalue = [7, 3]"] ;
13 -> 14 ;
15 [label="gini = 0.0\nsamples = 2\nvalue = [0, 2]"] ;
14 -> 15 ;
16 [label="CCAvg <= 1.05\ngini = 0.219\nsamples = 8\nvalue = [7, 1]"] ;
14 -> 16 ;
17 [label="gini = 0.0\nsamples = 7\nvalue = [7, 0]"] ;
16 -> 17 ;
18 [label="gini = 0.0\nsamples = 1\nvalue = [0, 1]"] ;
16 -> 18 ;
19 [label="gini = 0.0\nsamples = 15\nvalue = [15, 0]"] ;
13 -> 19 ;
20 [label="CCAvg <= 1.15\ngini = 0.413\nsamples = 24\nvalue = [17, 7]"] ;
4 -> 20 ;
21 [label="gini = 0.0\nsamples = 3\nvalue = [0, 3]"] ;
20 -> 21 ;
22 [label="Education <= 2.5\ngini = 0.308\nsamples = 21\nvalue = [17, 4]"] ;
20 -> 22 ;
23 [label="Age <= 35.0\ngini = 0.5\nsamples = 6\nvalue = [3, 3]"] ;
22 -> 23 ;
24 [label="gini = 0.0\nsamples = 3\nvalue = [3, 0]"] ;
23 -> 24 ;
25 [label="gini = 0.0\nsamples = 3\nvalue = [0, 3]"] ;
23 -> 25 ;
26 [label="CCAvg <= 2.45\ngini = 0.124\nsamples = 15\nvalue = [14, 1]"] ;
22 -> 26 ;
27 [label="gini = 0.0\nsamples = 14\nvalue = [14, 0]"] ;
26 -> 27 ;
28 [label="gini = 0.0\nsamples = 1\nvalue = [0, 1]"] ;
26 -> 28 ;
29 [label="CD Account <= 0.5\ngini = 0.363\nsamples = 298\nvalue = [227, 71]"] ;
1 -> 29 ;
30 [label="Income <= 92.5\ngini = 0.305\nsamples = 272\nvalue = [221, 51]"] ;
29 -> 30 ;
31 [label="Age <= 26.5\ngini = 0.176\nsamples = 174\nvalue = [157, 17]"] ;
30 -> 31 ;
32 [label="gini = 0.0\nsamples = 2\nvalue = [0, 2]"] ;
31 -> 32 ;
33 [label="CCAvg <= 3.65\ngini = 0.159\nsamples = 172\nvalue = [157, 15]"] ;
31 -> 33 ;
34 [label="Income <= 82.5\ngini = 0.254\nsamples = 87\nvalue = [74, 13]"] ;
33 -> 34 ;
35 [label="Mortgage <= 216.5\ngini = 0.148\nsamples = 62\nvalue = [57, 5]"] ;
34 -> 35 ;
36 [label="ZIP Code <= 91257.0\ngini = 0.097\nsamples = 59\nvalue = [56, 3]"] ;
35 -> 36 ;
37 [label="Experience <= 10.5\ngini = 0.346\nsamples = 9\nvalue = [7, 2]"] ;
36 -> 37 ;
38 [label="gini = 0.0\nsamples = 1\nvalue = [0, 1]"] ;
37 -> 38 ;
39 [label="ZIP Code <= 90974.0\ngini = 0.219\nsamples = 8\nvalue = [7, 1]"] ;
37 -> 39 ;
40 [label="gini = 0.0\nsamples = 7\nvalue = [7, 0]"] ;
39 -> 40 ;
41 [label="gini = 0.0\nsamples = 1\nvalue = [0, 1]"] ;
39 -> 41 ;
42 [label="ID <= 509.5\ngini = 0.039\nsamples = 50\nvalue = [49, 1]"] ;
36 -> 42 ;
43 [label="ID <= 463.5\ngini = 0.278\nsamples = 6\nvalue = [5, 1]"] ;
42 -> 43 ;
44 [label="gini = 0.0\nsamples = 5\nvalue = [5, 0]"] ;
43 -> 44 ;
45 [label="gini = 0.0\nsamples = 1\nvalue = [0, 1]"] ;
43 -> 45 ;
46 [label="gini = 0.0\nsamples = 44\nvalue = [44, 0]"] ;
42 -> 46 ;
47 [label="Mortgage <= 249.5\ngini = 0.444\nsamples = 3\nvalue = [1, 2]"] ;
35 -> 47 ;
48 [label="gini = 0.0\nsamples = 2\nvalue = [0, 2]"] ;
47 -> 48 ;
49 [label="gini = 0.0\nsamples = 1\nvalue = [1, 0]"] ;
47 -> 49 ;
50 [label="CCAvg <= 3.05\ngini = 0.435\nsamples = 25\nvalue = [17, 8]"] ;
34 -> 50 ;
51 [label="gini = 0.0\nsamples = 6\nvalue = [6, 0]"] ;
50 -> 51 ;
52 [label="Experience <= 23.0\ngini = 0.488\nsamples = 19\nvalue = [11, 8]"] ;
50 -> 52 ;
53 [label="Education <= 2.5\ngini = 0.32\nsamples = 10\nvalue = [8, 2]"] ;
52 -> 53 ;
54 [label="gini = 0.0\nsamples = 8\nvalue = [8, 0]"] ;
53 -> 54 ;
55 [label="gini = 0.0\nsamples = 2\nvalue = [0, 2]"] ;
53 -> 55 ;
56 [label="Family <= 3.5\ngini = 0.444\nsamples = 9\nvalue = [3, 6]"] ;
52 -> 56 ;
57 [label="gini = 0.0\nsamples = 5\nvalue = [0, 5]"] ;
56 -> 57 ;
58 [label="Education <= 1.5\ngini = 0.375\nsamples = 4\nvalue = [3, 1]"] ;
56 -> 58 ;
59 [label="gini = 0.0\nsamples = 1\nvalue = [0, 1]"] ;
58 -> 59 ;
60 [label="gini = 0.0\nsamples = 3\nvalue = [3, 0]"] ;
58 -> 60 ;
61 [label="CCAvg <= 3.9\ngini = 0.046\nsamples = 85\nvalue = [83, 2]"] ;
33 -> 61 ;
62 [label="Income <= 81.5\ngini = 0.105\nsamples = 36\nvalue = [34, 2]"] ;
61 -> 62 ;
63 [label="gini = 0.0\nsamples = 21\nvalue = [21, 0]"] ;
62 -> 63 ;
64 [label="Income <= 83.5\ngini = 0.231\nsamples = 15\nvalue = [13, 2]"] ;
62 -> 64 ;
65 [label="ZIP Code <= 94714.5\ngini = 0.444\nsamples = 6\nvalue = [4, 2]"] ;
64 -> 65 ;
66 [label="gini = 0.0\nsamples = 2\nvalue = [0, 2]"] ;
65 -> 66 ;
67 [label="gini = 0.0\nsamples = 4\nvalue = [4, 0]"] ;
65 -> 67 ;
68 [label="gini = 0.0\nsamples = 9\nvalue = [9, 0]"] ;
64 -> 68 ;
69 [label="gini = 0.0\nsamples = 49\nvalue = [49, 0]"] ;
61 -> 69 ;
70 [label="Education <= 1.5\ngini = 0.453\nsamples = 98\nvalue = [64, 34]"] ;
30 -> 70 ;
71 [label="Family <= 3.5\ngini = 0.163\nsamples = 56\nvalue = [51, 5]"] ;
70 -> 71 ;
72 [label="ID <= 1138.0\ngini = 0.107\nsamples = 53\nvalue = [50, 3]"] ;
71 -> 72 ;
73 [label="ID <= 1108.0\ngini = 0.305\nsamples = 16\nvalue = [13, 3]"] ;
72 -> 73 ;
74 [label="ZIP Code <= 90387.0\ngini = 0.231\nsamples = 15\nvalue = [13, 2]"] ;
73 -> 74 ;
75 [label="Experience <= 28.5\ngini = 0.5\nsamples = 2\nvalue = [1, 1]"] ;
74 -> 75 ;
76 [label="gini = 0.0\nsamples = 1\nvalue = [1, 0]"] ;
75 -> 76 ;
77 [label="gini = 0.0\nsamples = 1\nvalue = [0, 1]"] ;
75 -> 77 ;
78 [label="Family <= 2.5\ngini = 0.142\nsamples = 13\nvalue = [12, 1]"] ;
74 -> 78 ;
79 [label="gini = 0.0\nsamples = 11\nvalue = [11, 0]"] ;
78 -> 79 ;
80 [label="Income <= 109.5\ngini = 0.5\nsamples = 2\nvalue = [1, 1]"] ;
78 -> 80 ;
81 [label="gini = 0.0\nsamples = 1\nvalue = [0, 1]"] ;
80 -> 81 ;
82 [label="gini = 0.0\nsamples = 1\nvalue = [1, 0]"] ;
80 -> 82 ;
83 [label="gini = 0.0\nsamples = 1\nvalue = [0, 1]"] ;
73 -> 83 ;
84 [label="gini = 0.0\nsamples = 37\nvalue = [37, 0]"] ;
72 -> 84 ;
85 [label="Income <= 102.0\ngini = 0.444\nsamples = 3\nvalue = [1, 2]"] ;
71 -> 85 ;
86 [label="gini = 0.0\nsamples = 1\nvalue = [1, 0]"] ;
85 -> 86 ;
87 [label="gini = 0.0\nsamples = 2\nvalue = [0, 2]"] ;
85 -> 87 ;
88 [label="ID <= 2303.0\ngini = 0.427\nsamples = 42\nvalue = [13, 29]"] ;
70 -> 88 ;
89 [label="ID <= 860.5\ngini = 0.117\nsamples = 16\nvalue = [1, 15]"] ;
88 -> 89 ;
90 [label="Experience <= 18.0\ngini = 0.444\nsamples = 3\nvalue = [1, 2]"] ;
89 -> 90 ;
91 [label="gini = 0.0\nsamples = 1\nvalue = [1, 0]"] ;
90 -> 91 ;
92 [label="gini = 0.0\nsamples = 2\nvalue = [0, 2]"] ;
90 -> 92 ;
93 [label="gini = 0.0\nsamples = 13\nvalue = [0, 13]"] ;
89 -> 93 ;
94 [label="ZIP Code <= 95046.5\ngini = 0.497\nsamples = 26\nvalue = [12, 14]"] ;
88 -> 94 ;
95 [label="Family <= 2.5\ngini = 0.463\nsamples = 22\nvalue = [8, 14]"] ;
94 -> 95 ;
96 [label="Mortgage <= 171.5\ngini = 0.497\nsamples = 13\nvalue = [7, 6]"] ;
95 -> 96 ;
97 [label="Age <= 34.0\ngini = 0.444\nsamples = 9\nvalue = [3, 6]"] ;
96 -> 97 ;
98 [label="gini = 0.0\nsamples = 3\nvalue = [0, 3]"] ;
97 -> 98 ;
99 [label="Education <= 2.5\ngini = 0.5\nsamples = 6\nvalue = [3, 3]"] ;
97 -> 99 ;
100 [label="gini = 0.0\nsamples = 3\nvalue = [0, 3]"] ;
99 -> 100 ;
101 [label="gini = 0.0\nsamples = 3\nvalue = [3, 0]"] ;
99 -> 101 ;
102 [label="gini = 0.0\nsamples = 4\nvalue = [4, 0]"] ;
96 -> 102 ;
103 [label="CCAvg <= 3.5\ngini = 0.198\nsamples = 9\nvalue = [1, 8]"] ;
95 -> 103 ;
104 [label="gini = 0.0\nsamples = 1\nvalue = [1, 0]"] ;
103 -> 104 ;
105 [label="gini = 0.0\nsamples = 8\nvalue = [0, 8]"] ;
103 -> 105 ;
106 [label="gini = 0.0\nsamples = 4\nvalue = [4, 0]"] ;
94 -> 106 ;
107 [label="CCAvg <= 3.85\ngini = 0.355\nsamples = 26\nvalue = [6, 20]"] ;
29 -> 107 ;
108 [label="gini = 0.0\nsamples = 11\nvalue = [0, 11]"] ;
107 -> 108 ;
109 [label="Education <= 2.5\ngini = 0.48\nsamples = 15\nvalue = [6, 9]"] ;
107 -> 109 ;
110 [label="Experience <= 27.0\ngini = 0.397\nsamples = 11\nvalue = [3, 8]"] ;
109 -> 110 ;
111 [label="gini = 0.0\nsamples = 5\nvalue = [0, 5]"] ;
110 -> 111 ;
112 [label="Experience <= 38.5\ngini = 0.5\nsamples = 6\nvalue = [3, 3]"] ;
110 -> 112 ;
113 [label="gini = 0.0\nsamples = 3\nvalue = [3, 0]"] ;
112 -> 113 ;
114 [label="gini = 0.0\nsamples = 3\nvalue = [0, 3]"] ;
112 -> 114 ;
115 [label="Mortgage <= 195.5\ngini = 0.375\nsamples = 4\nvalue = [3, 1]"] ;
109 -> 115 ;
116 [label="gini = 0.0\nsamples = 3\nvalue = [3, 0]"] ;
115 -> 116 ;
117 [label="gini = 0.0\nsamples = 1\nvalue = [0, 1]"] ;
115 -> 117 ;
118 [label="Education <= 1.5\ngini = 0.482\nsamples = 979\nvalue = [583, 396]"] ;
0 -> 118 [labeldistance=2.5, labelangle=-45, headlabel="False"] ;
119 [label="Family <= 2.5\ngini = 0.194\nsamples = 635\nvalue = [566, 69]"] ;
118 -> 119 ;
120 [label="gini = 0.0\nsamples = 566\nvalue = [566, 0]"] ;
119 -> 120 ;
121 [label="gini = 0.0\nsamples = 69\nvalue = [0, 69]"] ;
119 -> 121 ;
122 [label="Income <= 116.5\ngini = 0.094\nsamples = 344\nvalue = [17, 327]"] ;
118 -> 122 ;
123 [label="CCAvg <= 2.15\ngini = 0.491\nsamples = 30\nvalue = [17, 13]"] ;
122 -> 123 ;
124 [label="CCAvg <= 0.55\ngini = 0.26\nsamples = 13\nvalue = [11, 2]"] ;
123 -> 124 ;
125 [label="gini = 0.0\nsamples = 1\nvalue = [0, 1]"] ;
124 -> 125 ;
126 [label="ZIP Code <= 94807.0\ngini = 0.153\nsamples = 12\nvalue = [11, 1]"] ;
124 -> 126 ;
127 [label="gini = 0.0\nsamples = 11\nvalue = [11, 0]"] ;
126 -> 127 ;
128 [label="gini = 0.0\nsamples = 1\nvalue = [0, 1]"] ;
126 -> 128 ;
129 [label="Age <= 60.5\ngini = 0.457\nsamples = 17\nvalue = [6, 11]"] ;
123 -> 129 ;
130 [label="Mortgage <= 141.5\ngini = 0.337\nsamples = 14\nvalue = [3, 11]"] ;
129 -> 130 ;
131 [label="ID <= 217.5\ngini = 0.26\nsamples = 13\nvalue = [2, 11]"] ;
130 -> 131 ;
132 [label="gini = 0.0\nsamples = 1\nvalue = [1, 0]"] ;
131 -> 132 ;
133 [label="Age <= 50.5\ngini = 0.153\nsamples = 12\nvalue = [1, 11]"] ;
131 -> 133 ;
134 [label="gini = 0.0\nsamples = 10\nvalue = [0, 10]"] ;
133 -> 134 ;
135 [label="CCAvg <= 3.3\ngini = 0.5\nsamples = 2\nvalue = [1, 1]"] ;
133 -> 135 ;
136 [label="gini = 0.0\nsamples = 1\nvalue = [1, 0]"] ;
135 -> 136 ;
137 [label="gini = 0.0\nsamples = 1\nvalue = [0, 1]"] ;
135 -> 137 ;
138 [label="gini = 0.0\nsamples = 1\nvalue = [1, 0]"] ;
130 -> 138 ;
139 [label="gini = 0.0\nsamples = 3\nvalue = [3, 0]"] ;
129 -> 139 ;
140 [label="gini = 0.0\nsamples = 314\nvalue = [0, 314]"] ;
122 -> 140 ;
}